digraph Tree {
node [shape=box] ;
0 [label="X[3] <= 0.5\ngini = 0.474\nsamples = 435\nvalue = [267, 168]"] ;
1 [label="X[2] <= -0.5\ngini = 0.038\nsamples = 258\nvalue = [253, 5]"] ;
0 -> 1 [labeldistance=2.5, labelangle=45, headlabel="True"] ;
2 [label="X[8] <= -0.5\ngini = 0.444\nsamples = 9\nvalue = [6, 3]"] ;
1 -> 2 ;
3 [label="gini = 0.0\nsamples = 2\nvalue = [0, 2]"] ;
2 -> 3 ;
4 [label="X[11] <= 0.5\ngini = 0.245\nsamples = 7\nvalue = [6, 1]"] ;
2 -> 4 ;
5 [label="gini = 0.0\nsamples = 5\nvalue = [5, 0]"] ;
4 -> 5 ;
6 [label="X[1] <= -0.5\ngini = 0.5\nsamples = 2\nvalue = [1, 1]"] ;
4 -> 6 ;
7 [label="gini = 0.0\nsamples = 1\nvalue = [0, 1]"] ;
6 -> 7 ;
8 [label="gini = 0.0\nsamples = 1\nvalue = [1, 0]"] ;
6 -> 8 ;
9 [label="X[2] <= 0.5\ngini = 0.016\nsamples = 249\nvalue = [247, 2]"] ;
1 -> 9 ;
10 [label="X[11] <= -0.5\ngini = 0.147\nsamples = 25\nvalue = [23, 2]"] ;
9 -> 10 ;
11 [label="gini = 0.0\nsamples = 1\nvalue = [0, 1]"] ;
10 -> 11 ;
12 [label="X[5] <= 0.5\ngini = 0.08\nsamples = 24\nvalue = [23, 1]"] ;
10 -> 12 ;
13 [label="X[14] <= 0.5\ngini = 0.219\nsamples = 8\nvalue = [7, 1]"] ;
12 -> 13 ;
14 [label="X[10] <= 0.5\ngini = 0.5\nsamples = 2\nvalue = [1, 1]"] ;
13 -> 14 ;
15 [label="gini = 0.0\nsamples = 1\nvalue = [0, 1]"] ;
14 -> 15 ;
16 [label="gini = 0.0\nsamples = 1\nvalue = [1, 0]"] ;
14 -> 16 ;
17 [label="gini = 0.0\nsamples = 6\nvalue = [6, 0]"] ;
13 -> 17 ;
18 [label="gini = 0.0\nsamples = 16\nvalue = [16, 0]"] ;
12 -> 18 ;
19 [label="gini = 0.0\nsamples = 224\nvalue = [224, 0]"] ;
9 -> 19 ;
20 [label="X[10] <= 0.5\ngini = 0.146\nsamples = 177\nvalue = [14, 163]"] ;
0 -> 20 [labeldistance=2.5, labelangle=-45, headlabel="False"] ;
21 [label="X[14] <= 0.5\ngini = 0.041\nsamples = 145\nvalue = [3, 142]"] ;
20 -> 21 ;
22 [label="X[2] <= 0.5\ngini = 0.015\nsamples = 132\nvalue = [1, 131]"] ;
21 -> 22 ;
23 [label="gini = 0.0\nsamples = 118\nvalue = [0, 118]"] ;
22 -> 23 ;
24 [label="X[15] <= 0.0\ngini = 0.133\nsamples = 14\nvalue = [1, 13]"] ;
22 -> 24 ;
25 [label="X[7] <= 0.5\ngini = 0.5\nsamples = 2\nvalue = [1, 1]"] ;
24 -> 25 ;
26 [label="gini = 0.0\nsamples = 1\nvalue = [1, 0]"] ;
25 -> 26 ;
27 [label="gini = 0.0\nsamples = 1\nvalue = [0, 1]"] ;
25 -> 27 ;
28 [label="gini = 0.0\nsamples = 12\nvalue = [0, 12]"] ;
24 -> 28 ;
29 [label="X[9] <= 0.5\ngini = 0.26\nsamples = 13\nvalue = [2, 11]"] ;
21 -> 29 ;
30 [label="X[8] <= 0.5\ngini = 0.5\nsamples = 4\nvalue = [2, 2]"] ;
29 -> 30 ;
31 [label="X[15] <= 0.5\ngini = 0.444\nsamples = 3\nvalue = [1, 2]"] ;
30 -> 31 ;
32 [label="gini = 0.0\nsamples = 2\nvalue = [0, 2]"] ;
31 -> 32 ;
33 [label="gini = 0.0\nsamples = 1\nvalue = [1, 0]"] ;
31 -> 33 ;
34 [label="gini = 0.0\nsamples = 1\nvalue = [1, 0]"] ;
30 -> 34 ;
35 [label="gini = 0.0\nsamples = 9\nvalue = [0, 9]"] ;
29 -> 35 ;
36 [label="X[8] <= 0.5\ngini = 0.451\nsamples = 32\nvalue = [11, 21]"] ;
20 -> 36 ;
37 [label="X[2] <= 0.5\ngini = 0.384\nsamples = 27\nvalue = [7, 20]"] ;
36 -> 37 ;
38 [label="X[15] <= 0.5\ngini = 0.245\nsamples = 21\nvalue = [3, 18]"] ;
37 -> 38 ;
39 [label="X[12] <= 0.5\ngini = 0.397\nsamples = 11\nvalue = [3, 8]"] ;
38 -> 39 ;
40 [label="gini = 0.0\nsamples = 1\nvalue = [1, 0]"] ;
39 -> 40 ;
41 [label="X[9] <= 0.5\ngini = 0.32\nsamples = 10\nvalue = [2, 8]"] ;
39 -> 41 ;
42 [label="X[14] <= -0.5\ngini = 0.444\nsamples = 6\nvalue = [2, 4]"] ;
41 -> 42 ;
43 [label="gini = 0.0\nsamples = 1\nvalue = [0, 1]"] ;
42 -> 43 ;
44 [label="X[15] <= -0.5\ngini = 0.48\nsamples = 5\nvalue = [2, 3]"] ;
42 -> 44 ;
45 [label="gini = 0.0\nsamples = 1\nvalue = [1, 0]"] ;
44 -> 45 ;
46 [label="X[0] <= 0.5\ngini = 0.375\nsamples = 4\nvalue = [1, 3]"] ;
44 -> 46 ;
47 [label="X[1] <= 0.5\ngini = 0.5\nsamples = 2\nvalue = [1, 1]"] ;
46 -> 47 ;
48 [label="gini = 0.0\nsamples = 1\nvalue = [1, 0]"] ;
47 -> 48 ;
49 [label="gini = 0.0\nsamples = 1\nvalue = [0, 1]"] ;
47 -> 49 ;
50 [label="gini = 0.0\nsamples = 2\nvalue = [0, 2]"] ;
46 -> 50 ;
51 [label="gini = 0.0\nsamples = 4\nvalue = [0, 4]"] ;
41 -> 51 ;
52 [label="gini = 0.0\nsamples = 10\nvalue = [0, 10]"] ;
38 -> 52 ;
53 [label="X[1] <= 0.5\ngini = 0.444\nsamples = 6\nvalue = [4, 2]"] ;
37 -> 53 ;
54 [label="gini = 0.0\nsamples = 2\nvalue = [0, 2]"] ;
53 -> 54 ;
55 [label="gini = 0.0\nsamples = 4\nvalue = [4, 0]"] ;
53 -> 55 ;
56 [label="X[12] <= 0.5\ngini = 0.32\nsamples = 5\nvalue = [4, 1]"] ;
36 -> 56 ;
57 [label="X[9] <= 0.5\ngini = 0.5\nsamples = 2\nvalue = [1, 1]"] ;
56 -> 57 ;
58 [label="gini = 0.0\nsamples = 1\nvalue = [1, 0]"] ;
57 -> 58 ;
59 [label="gini = 0.0\nsamples = 1\nvalue = [0, 1]"] ;
57 -> 59 ;
60 [label="gini = 0.0\nsamples = 3\nvalue = [3, 0]"] ;
56 -> 60 ;
}
